<?xml version="1.0"?>
<opencv_storage>
<cascade>
  <stageType>BOOST</stageType>
  <featureType>HAAR</featureType>
  <height>12</height>
  <width>53</width>
  <stageParams>
	<boostType>GAB</boostType>
	<minHitRate>9.9900001287460327e-01</minHitRate>
	<maxFalseAlarm>2.0000000298023224e-01</maxFalseAlarm>
	<weightTrimRate>9.4999999999999996e-01</weightTrimRate>
	<maxDepth>1</maxDepth>
	<maxWeakCount>100</maxWeakCount></stageParams>
  <featureParams>
	<maxCatCount>0</maxCatCount>
	<featSize>1</featSize>
	<mode>BASIC</mode></featureParams>
  <stageNum>7</stageNum>
  <stages>
	<!-- stage 0 -->
	<_>
	  <maxWeakCount>10</maxWeakCount>
	  <stageThreshold>-1.7682849168777466e+00</stageThreshold>
	  <weakClassifiers>
		<_>
		  <internalNodes>
			0 -1 14 -3.5521976649761200e-02</internalNodes>
		  <leafValues>
			8.1622910499572754e-01 -7.7890843152999878e-01</leafValues></_>
		<_>
		  <internalNodes>
			0 -1 39 -2.2349259257316589e-01</internalNodes>
		  <leafValues>
			4.0885436534881592e-01 -9.0060967206954956e-01</leafValues></_>
		<_>
		  <internalNodes>
			0 -1 85 -3.2795504666864872e-03</internalNodes>
		  <leafValues>
			4.8434066772460938e-01 -5.7773375511169434e-01</leafValues></_>
		<_>
		  <internalNodes>
			0 -1 36 2.8598774224519730e-02</internalNodes>
		  <leafValues>
			-3.2611343264579773e-01 7.6739805936813354e-01</leafValues></_>
		<_>
		  <internalNodes>
			0 -1 97 6.6764014773070812e-03</internalNodes>
		  <leafValues>
			-3.9374211430549622e-01 5.4327774047851563e-01</leafValues></_>
		<_>
		  <internalNodes>
			0 -1 11 -1.3643413782119751e-01</internalNodes>
		  <leafValues>
			2.4043512344360352e-01 -9.1834938526153564e-01</leafValues></_>
		<_>
		  <internalNodes>
			0 -1 34 -1.0253767669200897e-01</internalNodes>
		  <leafValues>
			8.7320709228515625e-01 -2.7100351452827454e-01</leafValues></_>
		<_>
		  <internalNodes>
			0 -1 49 1.5344895422458649e-02</internalNodes>
		  <leafValues>
			-3.2788884639739990e-01 8.2756215333938599e-01</leafValues></_>
		<_>
		  <internalNodes>
			0 -1 31 -2.0590396597981453e-02</internalNodes>
		  <leafValues>
			8.5408061742782593e-01 -2.0182558894157410e-01</leafValues></_>
		<_>
		  <internalNodes>
			0 -1 37 3.0328433960676193e-02</internalNodes>
		  <leafValues>
			-2.2382080554962158e-01 8.2979476451873779e-01</leafValues></_></weakClassifiers></_>
	<!-- stage 1 -->
	<_>
	  <maxWeakCount>10</maxWeakCount>
	  <stageThreshold>-1.4268487691879272e+00</stageThreshold>
	  <weakClassifiers>
		<_>
		  <internalNodes>
			0 -1 23 -3.7417098879814148e-02</internalNodes>
		  <leafValues>
			6.3822525739669800e-01 -7.3597359657287598e-01</leafValues></_>
		<_>
		  <internalNodes>
			0 -1 100 -1.5234703198075294e-02</internalNodes>
		  <leafValues>
			7.6549506187438965e-01 -4.5997914671897888e-01</leafValues></_>
		<_>
		  <internalNodes>
			0 -1 20 -7.3304429650306702e-02</internalNodes>
		  <leafValues>
			-6.8519783020019531e-01 4.3342331051826477e-01</leafValues></_>
		<_>
		  <internalNodes>
			0 -1 75 1.4553797431290150e-02</internalNodes>
		  <leafValues>
			-4.7193828225135803e-01 5.4941689968109131e-01</leafValues></_>
		<_>
		  <internalNodes>
			0 -1 3 2.1921250969171524e-02</internalNodes>
		  <leafValues>
			-3.3705598115921021e-01 7.4710577726364136e-01</leafValues></_>
		<_>
		  <internalNodes>
			0 -1 74 1.9542198628187180e-02</internalNodes>
		  <leafValues>
			2.8005209565162659e-01 -9.5353525876998901e-01</leafValues></_>
		<_>
		  <internalNodes>
			0 -1 48 1.2602588161826134e-02</internalNodes>
		  <leafValues>
			-3.2505774497985840e-01 6.9361853599548340e-01</leafValues></_>
		<_>
		  <internalNodes>
			0 -1 42 1.2107135728001595e-02</internalNodes>
		  <leafValues>
			-2.8843474388122559e-01 7.5009471178054810e-01</leafValues></_>
		<_>
		  <internalNodes>
			0 -1 38 -5.3709885105490685e-03</internalNodes>
		  <leafValues>
			3.6001455783843994e-01 -6.7026430368423462e-01</leafValues></_>
		<_>
		  <internalNodes>
			0 -1 27 -4.3917033821344376e-02</internalNodes>
		  <leafValues>
			-9.1096055507659912e-01 2.1804571151733398e-01</leafValues></_></weakClassifiers></_>
	<!-- stage 2 -->
	<_>
	  <maxWeakCount>11</maxWeakCount>
	  <stageThreshold>-1.0589073896408081e+00</stageThreshold>
	  <weakClassifiers>
		<_>
		  <internalNodes>
			0 -1 7 1.0170882567763329e-02</internalNodes>
		  <leafValues>
			-7.3745995759963989e-01 3.3925399184226990e-01</leafValues></_>
		<_>
		  <internalNodes>
			0 -1 8 -1.3412731885910034e-01</internalNodes>
		  <leafValues>
			-9.1523754596710205e-01 2.6091003417968750e-01</leafValues></_>
		<_>
		  <internalNodes>
			0 -1 45 -2.4038057774305344e-02</internalNodes>
		  <leafValues>
			5.1167339086532593e-01 -5.7895630598068237e-01</leafValues></_>
		<_>
		  <internalNodes>
			0 -1 86 -1.3841021806001663e-02</internalNodes>
		  <leafValues>
			5.9411090612411499e-01 -4.4161531329154968e-01</leafValues></_>
		<_>
		  <internalNodes>
			0 -1 103 -6.5444726496934891e-03</internalNodes>
		  <leafValues>
			7.8830826282501221e-01 -2.6603931188583374e-01</leafValues></_>
		<_>
		  <internalNodes>
			0 -1 69 -1.4806380495429039e-03</internalNodes>
		  <leafValues>
			5.9069555997848511e-01 -2.9089033603668213e-01</leafValues></_>
		<_>
		  <internalNodes>
			0 -1 73 -1.9737654365599155e-03</internalNodes>
		  <leafValues>
			7.2771906852722168e-01 -2.6661857962608337e-01</leafValues></_>
		<_>
		  <internalNodes>
			0 -1 17 -1.2795550748705864e-02</internalNodes>
		  <leafValues>
			7.9366827011108398e-01 -1.7468458414077759e-01</leafValues></_>
		<_>
		  <internalNodes>
			0 -1 2 8.8863354176282883e-03</internalNodes>
		  <leafValues>
			-2.1485157310962677e-01 6.9942659139633179e-01</leafValues></_>
		<_>
		  <internalNodes>
			0 -1 76 -5.0209455192089081e-02</internalNodes>
		  <leafValues>
			-9.1523206233978271e-01 2.2280381619930267e-01</leafValues></_>
		<_>
		  <internalNodes>
			0 -1 70 -2.7010962367057800e-03</internalNodes>
		  <leafValues>
			6.9374865293502808e-01 -2.6744008064270020e-01</leafValues></_></weakClassifiers></_>
	<!-- stage 3 -->
	<_>
	  <maxWeakCount>17</maxWeakCount>
	  <stageThreshold>-1.4855440855026245e+00</stageThreshold>
	  <weakClassifiers>
		<_>
		  <internalNodes>
			0 -1 13 -1.7488874495029449e-01</internalNodes>
		  <leafValues>
			4.5919609069824219e-01 -6.3194125890731812e-01</leafValues></_>
		<_>
		  <internalNodes>
			0 -1 4 8.3162486553192139e-02</internalNodes>
		  <leafValues>
			-3.9518296718597412e-01 5.5565339326858521e-01</leafValues></_>
		<_>
		  <internalNodes>
			0 -1 46 -6.0067092999815941e-03</internalNodes>
		  <leafValues>
			5.0167536735534668e-01 -3.8355562090873718e-01</leafValues></_>
		<_>
		  <internalNodes>
			0 -1 52 2.4481305852532387e-02</internalNodes>
		  <leafValues>
			-2.7546387910842896e-01 6.3744491338729858e-01</leafValues></_>
		<_>
		  <internalNodes>
			0 -1 101 -1.2189585715532303e-02</internalNodes>
		  <leafValues>
			5.8609402179718018e-01 -3.0379006266593933e-01</leafValues></_>
		<_>
		  <internalNodes>
			0 -1 84 -7.8157958341762424e-04</internalNodes>
		  <leafValues>
			-8.7493056058883667e-01 2.1116821467876434e-01</leafValues></_>
		<_>
		  <internalNodes>
			0 -1 83 4.5171804958954453e-04</internalNodes>
		  <leafValues>
			2.1452245116233826e-01 -7.9154062271118164e-01</leafValues></_>
		<_>
		  <internalNodes>
			0 -1 65 7.6514384709298611e-03</internalNodes>
		  <leafValues>
			-5.4781854152679443e-01 2.7338287234306335e-01</leafValues></_>
		<_>
		  <internalNodes>
			0 -1 92 4.3811574578285217e-03</internalNodes>
		  <leafValues>
			-2.3593580722808838e-01 7.0982426404953003e-01</leafValues></_>
		<_>
		  <internalNodes>
			0 -1 93 -1.9990643486380577e-03</internalNodes>
		  <leafValues>
			8.5590487718582153e-01 -1.6512560844421387e-01</leafValues></_>
		<_>
		  <internalNodes>
			0 -1 59 -1.5383717417716980e-01</internalNodes>
		  <leafValues>
			2.0118473470211029e-01 -9.6408492326736450e-01</leafValues></_>
		<_>
		  <internalNodes>
			0 -1 35 9.0998159721493721e-03</internalNodes>
		  <leafValues>
			1.3073973357677460e-01 -8.6329376697540283e-01</leafValues></_>
		<_>
		  <internalNodes>
			0 -1 25 -2.5316992774605751e-02</internalNodes>
		  <leafValues>
			-9.3649601936340332e-01 1.1627605557441711e-01</leafValues></_>
		<_>
		  <internalNodes>
			0 -1 26 6.2017049640417099e-04</internalNodes>
		  <leafValues>
			1.2232023477554321e-01 -8.8668286800384521e-01</leafValues></_>
		<_>
		  <internalNodes>
			0 -1 26 -7.7036418952047825e-04</internalNodes>
		  <leafValues>
			-8.1264162063598633e-01 1.6270822286605835e-01</leafValues></_>
		<_>
		  <internalNodes>
			0 -1 57 4.6366639435291290e-03</internalNodes>
		  <leafValues>
			-2.2099608182907104e-01 8.5496878623962402e-01</leafValues></_>
		<_>
		  <internalNodes>
			0 -1 44 -6.1781401745975018e-04</internalNodes>
		  <leafValues>
			5.2039068937301636e-01 -2.5311905145645142e-01</leafValues></_></weakClassifiers></_>
	<!-- stage 4 -->
	<_>
	  <maxWeakCount>17</maxWeakCount>
	  <stageThreshold>-1.4280805587768555e+00</stageThreshold>
	  <weakClassifiers>
		<_>
		  <internalNodes>
			0 -1 12 -1.2037648260593414e-01</internalNodes>
		  <leafValues>
			3.4340381622314453e-01 -6.6816145181655884e-01</leafValues></_>
		<_>
		  <internalNodes>
			0 -1 10 3.4941244870424271e-02</internalNodes>
		  <leafValues>
			-3.4140911698341370e-01 6.5292936563491821e-01</leafValues></_>
		<_>
		  <internalNodes>
			0 -1 100 -2.7409635484218597e-02</internalNodes>
		  <leafValues>
			7.3938047885894775e-01 -2.3357695341110229e-01</leafValues></_>
		<_>
		  <internalNodes>
			0 -1 80 -7.8146597370505333e-03</internalNodes>
		  <leafValues>
			3.2331681251525879e-01 -5.8798801898956299e-01</leafValues></_>
		<_>
		  <internalNodes>
			0 -1 29 5.0108344294130802e-04</internalNodes>
		  <leafValues>
			1.9569322466850281e-01 -8.1661570072174072e-01</leafValues></_>
		<_>
		  <internalNodes>
			0 -1 29 -6.8429636303335428e-04</internalNodes>
		  <leafValues>
			-9.2816841602325439e-01 1.9138637185096741e-01</leafValues></_>
		<_>
		  <internalNodes>
			0 -1 3 -2.8155155479907990e-02</internalNodes>
		  <leafValues>
			7.8181004524230957e-01 -2.4300113320350647e-01</leafValues></_>
		<_>
		  <internalNodes>
			0 -1 19 4.4372431002557278e-03</internalNodes>
		  <leafValues>
			-4.2059549689292908e-01 3.6648184061050415e-01</leafValues></_>
		<_>
		  <internalNodes>
			0 -1 99 -8.0016418360173702e-04</internalNodes>
		  <leafValues>
			-8.9481383562088013e-01 1.6836884617805481e-01</leafValues></_>
		<_>
		  <internalNodes>
			0 -1 99 5.9624772984534502e-04</internalNodes>
		  <leafValues>
			1.8446582555770874e-01 -7.3831009864807129e-01</leafValues></_>
		<_>
		  <internalNodes>
			0 -1 72 4.1230809874832630e-03</internalNodes>
		  <leafValues>
			-2.2569271922111511e-01 7.1650487184524536e-01</leafValues></_>
		<_>
		  <internalNodes>
			0 -1 58 -3.0598994344472885e-03</internalNodes>
		  <leafValues>
			6.2617760896682739e-01 -2.1694046258926392e-01</leafValues></_>
		<_>
		  <internalNodes>
			0 -1 15 -2.6850083842873573e-02</internalNodes>
		  <leafValues>
			8.1500482559204102e-01 -1.2307129800319672e-01</leafValues></_>
		<_>
		  <internalNodes>
			0 -1 51 1.5995057299733162e-02</internalNodes>
		  <leafValues>
			-1.7577353119850159e-01 5.9625035524368286e-01</leafValues></_>
		<_>
		  <internalNodes>
			0 -1 68 6.1703380197286606e-04</internalNodes>
		  <leafValues>
			1.6607639193534851e-01 -7.4467599391937256e-01</leafValues></_>
		<_>
		  <internalNodes>
			0 -1 71 -3.4686811268329620e-03</internalNodes>
		  <leafValues>
			7.4709081649780273e-01 -1.9030943512916565e-01</leafValues></_>
		<_>
		  <internalNodes>
			0 -1 54 2.6029576547443867e-03</internalNodes>
		  <leafValues>
			-5.8961200714111328e-01 2.4933035671710968e-01</leafValues></_></weakClassifiers></_>
	<!-- stage 5 -->
	<_>
	  <maxWeakCount>22</maxWeakCount>
	  <stageThreshold>-1.7439317703247070e+00</stageThreshold>
	  <weakClassifiers>
		<_>
		  <internalNodes>
			0 -1 95 -9.2823728919029236e-02</internalNodes>
		  <leafValues>
			-5.6116676330566406e-01 4.1109529137611389e-01</leafValues></_>
		<_>
		  <internalNodes>
			0 -1 87 -4.0673548355698586e-03</internalNodes>
		  <leafValues>
			4.5871388912200928e-01 -3.7960815429687500e-01</leafValues></_>
		<_>
		  <internalNodes>
			0 -1 90 1.2007671408355236e-02</internalNodes>
		  <leafValues>
			-2.7209845185279846e-01 5.9865146875381470e-01</leafValues></_>
		<_>
		  <internalNodes>
			0 -1 82 5.5264029651880264e-04</internalNodes>
		  <leafValues>
			-3.8883686065673828e-01 3.6985915899276733e-01</leafValues></_>
		<_>
		  <internalNodes>
			0 -1 9 3.9260126650333405e-03</internalNodes>
		  <leafValues>
			-4.3947502970695496e-01 3.0990853905677795e-01</leafValues></_>
		<_>
		  <internalNodes>
			0 -1 43 1.7772556748241186e-04</internalNodes>
		  <leafValues>
			2.1197287738323212e-01 -6.7827552556991577e-01</leafValues></_>
		<_>
		  <internalNodes>
			0 -1 102 3.4118930343538523e-03</internalNodes>
		  <leafValues>
			-3.1949934363365173e-01 4.2781817913055420e-01</leafValues></_>
		<_>
		  <internalNodes>
			0 -1 55 3.1091170385479927e-03</internalNodes>
		  <leafValues>
			-1.8281733989715576e-01 6.6116863489151001e-01</leafValues></_>
		<_>
		  <internalNodes>
			0 -1 56 -2.8158857021480799e-03</internalNodes>
		  <leafValues>
			5.7792645692825317e-01 -2.3852623999118805e-01</leafValues></_>
		<_>
		  <internalNodes>
			0 -1 24 -3.2240848988294601e-02</internalNodes>
		  <leafValues>
			-7.3620587587356567e-01 1.8720620870590210e-01</leafValues></_>
		<_>
		  <internalNodes>
			0 -1 30 6.9488093256950378e-02</internalNodes>
		  <leafValues>
			-2.8674069046974182e-01 4.7679656744003296e-01</leafValues></_>
		<_>
		  <internalNodes>
			0 -1 77 -2.4798493832349777e-02</internalNodes>
		  <leafValues>
			5.3773844242095947e-01 -3.0482694506645203e-01</leafValues></_>
		<_>
		  <internalNodes>
			0 -1 98 8.5913538932800293e-03</internalNodes>
		  <leafValues>
			-1.9493839144706726e-01 5.3740596771240234e-01</leafValues></_>
		<_>
		  <internalNodes>
			0 -1 1 -1.4887672662734985e-01</internalNodes>
		  <leafValues>
			5.3124231100082397e-01 -2.5892183184623718e-01</leafValues></_>
		<_>
		  <internalNodes>
			0 -1 33 3.9016287773847580e-03</internalNodes>
		  <leafValues>
			-3.2004916667938232e-01 4.5602524280548096e-01</leafValues></_>
		<_>
		  <internalNodes>
			0 -1 64 -1.7604613676667213e-03</internalNodes>
		  <leafValues>
			4.6464172005653381e-01 -2.7437272667884827e-01</leafValues></_>
		<_>
		  <internalNodes>
			0 -1 66 -1.0031461715698242e-03</internalNodes>
		  <leafValues>
			6.3893985748291016e-01 -1.8957681953907013e-01</leafValues></_>
		<_>
		  <internalNodes>
			0 -1 62 -1.8188520334661007e-03</internalNodes>
		  <leafValues>
			5.6776171922683716e-01 -2.0884466171264648e-01</leafValues></_>
		<_>
		  <internalNodes>
			0 -1 88 -2.8850259259343147e-02</internalNodes>
		  <leafValues>
			-5.0686120986938477e-01 2.5771626830101013e-01</leafValues></_>
		<_>
		  <internalNodes>
			0 -1 6 1.4334022998809814e-02</internalNodes>
		  <leafValues>
			1.5290211141109467e-01 -6.6440838575363159e-01</leafValues></_>
		<_>
		  <internalNodes>
			0 -1 67 -5.1588541828095913e-04</internalNodes>
		  <leafValues>
			-8.9131528139114380e-01 1.0839504003524780e-01</leafValues></_>
		<_>
		  <internalNodes>
			0 -1 47 -1.7744876444339752e-02</internalNodes>
		  <leafValues>
			5.1229929924011230e-01 -2.4603995680809021e-01</leafValues></_></weakClassifiers></_>
	<!-- stage 6 -->
	<_>
	  <maxWeakCount>23</maxWeakCount>
	  <stageThreshold>-1.3941165208816528e+00</stageThreshold>
	  <weakClassifiers>
		<_>
		  <internalNodes>
			0 -1 0 1.4859594404697418e-02</internalNodes>
		  <leafValues>
			-5.3065365552902222e-01 5.7169461250305176e-01</leafValues></_>
		<_>
		  <internalNodes>
			0 -1 78 1.2147415429353714e-02</internalNodes>
		  <leafValues>
			-3.1700995564460754e-01 4.4958832859992981e-01</leafValues></_>
		<_>
		  <internalNodes>
			0 -1 81 -1.2628026306629181e-03</internalNodes>
		  <leafValues>
			5.7329571247100830e-01 -2.4205209314823151e-01</leafValues></_>
		<_>
		  <internalNodes>
			0 -1 91 -3.4664976410567760e-03</internalNodes>
		  <leafValues>
			-8.0438804626464844e-01 1.9896516203880310e-01</leafValues></_>
		<_>
		  <internalNodes>
			0 -1 5 3.0641490593552589e-03</internalNodes>
		  <leafValues>
			-3.4241098165512085e-01 3.2760345935821533e-01</leafValues></_>
		<_>
		  <internalNodes>
			0 -1 94 -2.5004870258271694e-03</internalNodes>
		  <leafValues>
			4.6559920907020569e-01 -2.3256732523441315e-01</leafValues></_>
		<_>
		  <internalNodes>
			0 -1 96 3.5130828619003296e-03</internalNodes>
		  <leafValues>
			-2.0248675346374512e-01 6.4534890651702881e-01</leafValues></_>
		<_>
		  <internalNodes>
			0 -1 68 -6.3896726351231337e-04</internalNodes>
		  <leafValues>
			-7.0921432971954346e-01 1.8553633987903595e-01</leafValues></_>
		<_>
		  <internalNodes>
			0 -1 16 -4.1378136724233627e-02</internalNodes>
		  <leafValues>
			-8.9391624927520752e-01 9.5820620656013489e-02</leafValues></_>
		<_>
		  <internalNodes>
			0 -1 89 4.0643783286213875e-03</internalNodes>
		  <leafValues>
			-2.8660151362419128e-01 4.1116449236869812e-01</leafValues></_>
		<_>
		  <internalNodes>
			0 -1 18 -1.4611956477165222e-01</internalNodes>
		  <leafValues>
			4.7113451361656189e-01 -2.3173992335796356e-01</leafValues></_>
		<_>
		  <internalNodes>
			0 -1 50 1.3646166771650314e-03</internalNodes>
		  <leafValues>
			-1.9629979133605957e-01 6.1397588253021240e-01</leafValues></_>
		<_>
		  <internalNodes>
			0 -1 61 -2.9850867576897144e-03</internalNodes>
		  <leafValues>
			6.1372214555740356e-01 -1.8801355361938477e-01</leafValues></_>
		<_>
		  <internalNodes>
			0 -1 22 5.6571490131318569e-04</internalNodes>
		  <leafValues>
			1.6586180031299591e-01 -8.7144571542739868e-01</leafValues></_>
		<_>
		  <internalNodes>
			0 -1 28 -1.3775421539321542e-03</internalNodes>
		  <leafValues>
			3.9622375369071960e-01 -2.7349367737770081e-01</leafValues></_>
		<_>
		  <internalNodes>
			0 -1 79 -6.9916169159114361e-03</internalNodes>
		  <leafValues>
			-7.9439592361450195e-01 1.5577229857444763e-01</leafValues></_>
		<_>
		  <internalNodes>
			0 -1 21 3.0588977970182896e-03</internalNodes>
		  <leafValues>
			-4.5128029584884644e-01 2.0616886019706726e-01</leafValues></_>
		<_>
		  <internalNodes>
			0 -1 32 -1.7336725722998381e-03</internalNodes>
		  <leafValues>
			5.4913187026977539e-01 -2.1676136553287506e-01</leafValues></_>
		<_>
		  <internalNodes>
			0 -1 41 3.0421032570302486e-03</internalNodes>
		  <leafValues>
			1.7778658866882324e-01 -7.9551094770431519e-01</leafValues></_>
		<_>
		  <internalNodes>
			0 -1 40 -1.3105826219543815e-03</internalNodes>
		  <leafValues>
			5.1600158214569092e-01 -2.4498906731605530e-01</leafValues></_>
		<_>
		  <internalNodes>
			0 -1 53 6.2257859855890274e-02</internalNodes>
		  <leafValues>
			1.4017531275749207e-01 -8.4295612573623657e-01</leafValues></_>
		<_>
		  <internalNodes>
			0 -1 60 5.0572445616126060e-03</internalNodes>
		  <leafValues>
			-6.0875898599624634e-01 2.0524720847606659e-01</leafValues></_>
		<_>
		  <internalNodes>
			0 -1 63 -4.3992022983729839e-04</internalNodes>
		  <leafValues>
			-8.4681326150894165e-01 9.8707884550094604e-02</leafValues></_></weakClassifiers></_></stages>
  <features>
	<_>
	  <rects>
		<_>
		  0 3 4 5 -1.</_>
		<_>
		  2 3 2 5 2.</_></rects>
	  <tilted>0</tilted></_>
	<_>
	  <rects>
		<_>
		  0 6 40 6 -1.</_>
		<_>
		  0 9 40 3 2.</_></rects>
	  <tilted>0</tilted></_>
	<_>
	  <rects>
		<_>
		  0 8 16 2 -1.</_>
		<_>
		  0 8 8 1 2.</_>
		<_>
		  8 9 8 1 2.</_></rects>
	  <tilted>0</tilted></_>
	<_>
	  <rects>
		<_>
		  1 1 29 2 -1.</_>
		<_>
		  1 2 29 1 2.</_></rects>
	  <tilted>0</tilted></_>
	<_>
	  <rects>
		<_>
		  1 1 50 4 -1.</_>
		<_>
		  1 3 50 2 2.</_></rects>
	  <tilted>0</tilted></_>
	<_>
	  <rects>
		<_>
		  1 4 8 2 -1.</_>
		<_>
		  5 4 4 2 2.</_></rects>
	  <tilted>0</tilted></_>
	<_>
	  <rects>
		<_>
		  1 4 8 6 -1.</_>
		<_>
		  1 7 8 3 2.</_></rects>
	  <tilted>0</tilted></_>
	<_>
	  <rects>
		<_>
		  1 6 8 4 -1.</_>
		<_>
		  5 6 4 4 2.</_></rects>
	  <tilted>0</tilted></_>
	<_>
	  <rects>
		<_>
		  1 6 48 1 -1.</_>
		<_>
		  17 6 16 1 2.</_></rects>
	  <tilted>0</tilted></_>
	<_>
	  <rects>
		<_>
		  2 1 8 8 -1.</_>
		<_>
		  2 1 4 4 2.</_>
		<_>
		  6 5 4 4 2.</_></rects>
	  <tilted>0</tilted></_>
	<_>
	  <rects>
		<_>
		  6 1 30 2 -1.</_>
		<_>
		  6 2 30 1 2.</_></rects>
	  <tilted>0</tilted></_>
	<_>
	  <rects>
		<_>
		  6 3 18 6 -1.</_>
		<_>
		  12 3 6 6 2.</_></rects>
	  <tilted>0</tilted></_>
	<_>
	  <rects>
		<_>
		  6 8 37 4 -1.</_>
		<_>
		  6 10 37 2 2.</_></rects>
	  <tilted>0</tilted></_>
	<_>
	  <rects>
		<_>
		  6 8 44 4 -1.</_>
		<_>
		  6 10 44 2 2.</_></rects>
	  <tilted>0</tilted></_>
	<_>
	  <rects>
		<_>
		  7 9 44 2 -1.</_>
		<_>
		  7 10 44 1 2.</_></rects>
	  <tilted>0</tilted></_>
	<_>
	  <rects>
		<_>
		  8 0 21 2 -1.</_>
		<_>
		  8 1 21 1 2.</_></rects>
	  <tilted>0</tilted></_>
	<_>
	  <rects>
		<_>
		  8 4 43 4 -1.</_>
		<_>
		  8 6 43 2 2.</_></rects>
	  <tilted>0</tilted></_>
	<_>
	  <rects>
		<_>
		  9 3 4 5 -1.</_>
		<_>
		  11 3 2 5 2.</_></rects>
	  <tilted>0</tilted></_>
	<_>
	  <rects>
		<_>
		  10 2 41 10 -1.</_>
		<_>
		  10 7 41 5 2.</_></rects>
	  <tilted>0</tilted></_>
	<_>
	  <rects>
		<_>
		  11 1 12 4 -1.</_>
		<_>
		  11 1 6 2 2.</_>
		<_>
		  17 3 6 2 2.</_></rects>
	  <tilted>0</tilted></_>
	<_>
	  <rects>
		<_>
		  11 3 18 2 -1.</_>
		<_>
		  17 3 6 2 2.</_></rects>
	  <tilted>0</tilted></_>
	<_>
	  <rects>
		<_>
		  11 4 12 4 -1.</_>
		<_>
		  17 4 6 4 2.</_></rects>
	  <tilted>0</tilted></_>
	<_>
	  <rects>
		<_>
		  12 0 2 2 -1.</_>
		<_>
		  13 0 1 2 2.</_></rects>
	  <tilted>0</tilted></_>
	<_>
	  <rects>
		<_>
		  12 9 37 2 -1.</_>
		<_>
		  12 10 37 1 2.</_></rects>
	  <tilted>0</tilted></_>
	<_>
	  <rects>
		<_>
		  13 4 38 4 -1.</_>
		<_>
		  32 4 19 4 2.</_></rects>
	  <tilted>0</tilted></_>
	<_>
	  <rects>
		<_>
		  13 5 26 2 -1.</_>
		<_>
		  26 5 13 2 2.</_></rects>
	  <tilted>0</tilted></_>
	<_>
	  <rects>
		<_>
		  14 0 2 2 -1.</_>
		<_>
		  15 0 1 2 2.</_></rects>
	  <tilted>0</tilted></_>
	<_>
	  <rects>
		<_>
		  14 3 38 4 -1.</_>
		<_>
		  33 3 19 4 2.</_></rects>
	  <tilted>0</tilted></_>
	<_>
	  <rects>
		<_>
		  15 2 2 5 -1.</_>
		<_>
		  16 2 1 5 2.</_></rects>
	  <tilted>0</tilted></_>
	<_>
	  <rects>
		<_>
		  16 0 2 2 -1.</_>
		<_>
		  17 0 1 2 2.</_></rects>
	  <tilted>0</tilted></_>
	<_>
	  <rects>
		<_>
		  16 0 21 6 -1.</_>
		<_>
		  16 3 21 3 2.</_></rects>
	  <tilted>0</tilted></_>
	<_>
	  <rects>
		<_>
		  16 1 22 2 -1.</_>
		<_>
		  16 2 22 1 2.</_></rects>
	  <tilted>0</tilted></_>
	<_>
	  <rects>
		<_>
		  16 4 2 3 -1.</_>
		<_>
		  17 4 1 3 2.</_></rects>
	  <tilted>0</tilted></_>
	<_>
	  <rects>
		<_>
		  16 8 10 2 -1.</_>
		<_>
		  16 9 10 1 2.</_></rects>
	  <tilted>0</tilted></_>
	<_>
	  <rects>
		<_>
		  16 8 23 4 -1.</_>
		<_>
		  16 10 23 2 2.</_></rects>
	  <tilted>0</tilted></_>
	<_>
	  <rects>
		<_>
		  17 1 16 8 -1.</_>
		<_>
		  25 1 8 8 2.</_></rects>
	  <tilted>0</tilted></_>
	<_>
	  <rects>
		<_>
		  17 1 35 2 -1.</_>
		<_>
		  17 2 35 1 2.</_></rects>
	  <tilted>0</tilted></_>
	<_>
	  <rects>
		<_>
		  17 2 23 2 -1.</_>
		<_>
		  17 3 23 1 2.</_></rects>
	  <tilted>0</tilted></_>
	<_>
	  <rects>
		<_>
		  17 3 16 5 -1.</_>
		<_>
		  25 3 8 5 2.</_></rects>
	  <tilted>0</tilted></_>
	<_>
	  <rects>
		<_>
		  17 3 24 6 -1.</_>
		<_>
		  25 3 8 6 2.</_></rects>
	  <tilted>0</tilted></_>
	<_>
	  <rects>
		<_>
		  17 5 2 2 -1.</_>
		<_>
		  18 5 1 2 2.</_></rects>
	  <tilted>0</tilted></_>
	<_>
	  <rects>
		<_>
		  17 9 6 1 -1.</_>
		<_>
		  20 9 3 1 2.</_></rects>
	  <tilted>0</tilted></_>
	<_>
	  <rects>
		<_>
		  18 2 11 2 -1.</_>
		<_>
		  18 3 11 1 2.</_></rects>
	  <tilted>0</tilted></_>
	<_>
	  <rects>
		<_>
		  18 3 16 5 -1.</_>
		<_>
		  26 3 8 5 2.</_></rects>
	  <tilted>0</tilted></_>
	<_>
	  <rects>
		<_>
		  18 5 2 2 -1.</_>
		<_>
		  19 5 1 2 2.</_></rects>
	  <tilted>0</tilted></_>
	<_>
	  <rects>
		<_>
		  18 9 35 2 -1.</_>
		<_>
		  18 10 35 1 2.</_></rects>
	  <tilted>0</tilted></_>
	<_>
	  <rects>
		<_>
		  19 3 6 3 -1.</_>
		<_>
		  22 3 3 3 2.</_></rects>
	  <tilted>0</tilted></_>
	<_>
	  <rects>
		<_>
		  19 3 6 5 -1.</_>
		<_>
		  22 3 3 5 2.</_></rects>
	  <tilted>0</tilted></_>
	<_>
	  <rects>
		<_>
		  20 8 12 2 -1.</_>
		<_>
		  20 9 12 1 2.</_></rects>
	  <tilted>0</tilted></_>
	<_>
	  <rects>
		<_>
		  22 8 22 2 -1.</_>
		<_>
		  22 9 22 1 2.</_></rects>
	  <tilted>0</tilted></_>
	<_>
	  <rects>
		<_>
		  23 7 2 2 -1.</_>
		<_>
		  23 7 1 1 2.</_>
		<_>
		  24 8 1 1 2.</_></rects>
	  <tilted>0</tilted></_>
	<_>
	  <rects>
		<_>
		  23 8 12 2 -1.</_>
		<_>
		  23 9 12 1 2.</_></rects>
	  <tilted>0</tilted></_>
	<_>
	  <rects>
		<_>
		  23 8 26 2 -1.</_>
		<_>
		  23 9 26 1 2.</_></rects>
	  <tilted>0</tilted></_>
	<_>
	  <rects>
		<_>
		  24 1 14 11 -1.</_>
		<_>
		  31 1 7 11 2.</_></rects>
	  <tilted>0</tilted></_>
	<_>
	  <rects>
		<_>
		  25 2 14 6 -1.</_>
		<_>
		  32 2 7 6 2.</_></rects>
	  <tilted>0</tilted></_>
	<_>
	  <rects>
		<_>
		  25 5 2 3 -1.</_>
		<_>
		  26 5 1 3 2.</_></rects>
	  <tilted>0</tilted></_>
	<_>
	  <rects>
		<_>
		  25 5 2 4 -1.</_>
		<_>
		  26 5 1 4 2.</_></rects>
	  <tilted>0</tilted></_>
	<_>
	  <rects>
		<_>
		  26 4 2 3 -1.</_>
		<_>
		  27 4 1 3 2.</_></rects>
	  <tilted>0</tilted></_>
	<_>
	  <rects>
		<_>
		  26 5 2 4 -1.</_>
		<_>
		  27 5 1 4 2.</_></rects>
	  <tilted>0</tilted></_>
	<_>
	  <rects>
		<_>
		  27 1 18 9 -1.</_>
		<_>
		  33 1 6 9 2.</_></rects>
	  <tilted>0</tilted></_>
	<_>
	  <rects>
		<_>
		  27 2 12 9 -1.</_>
		<_>
		  33 2 6 9 2.</_></rects>
	  <tilted>0</tilted></_>
	<_>
	  <rects>
		<_>
		  27 4 2 3 -1.</_>
		<_>
		  28 4 1 3 2.</_></rects>
	  <tilted>0</tilted></_>
	<_>
	  <rects>
		<_>
		  27 7 4 2 -1.</_>
		<_>
		  27 7 2 1 2.</_>
		<_>
		  29 8 2 1 2.</_></rects>
	  <tilted>0</tilted></_>
	<_>
	  <rects>
		<_>
		  30 1 2 1 -1.</_>
		<_>
		  31 1 1 1 2.</_></rects>
	  <tilted>0</tilted></_>
	<_>
	  <rects>
		<_>
		  30 1 2 6 -1.</_>
		<_>
		  31 1 1 6 2.</_></rects>
	  <tilted>0</tilted></_>
	<_>
	  <rects>
		<_>
		  30 2 10 6 -1.</_>
		<_>
		  35 2 5 6 2.</_></rects>
	  <tilted>0</tilted></_>
	<_>
	  <rects>
		<_>
		  30 7 2 2 -1.</_>
		<_>
		  30 7 1 1 2.</_>
		<_>
		  31 8 1 1 2.</_></rects>
	  <tilted>0</tilted></_>
	<_>
	  <rects>
		<_>
		  30 11 2 1 -1.</_>
		<_>
		  31 11 1 1 2.</_></rects>
	  <tilted>0</tilted></_>
	<_>
	  <rects>
		<_>
		  31 1 2 2 -1.</_>
		<_>
		  32 1 1 2 2.</_></rects>
	  <tilted>0</tilted></_>
	<_>
	  <rects>
		<_>
		  31 3 2 2 -1.</_>
		<_>
		  31 4 2 1 2.</_></rects>
	  <tilted>0</tilted></_>
	<_>
	  <rects>
		<_>
		  31 4 2 4 -1.</_>
		<_>
		  32 4 1 4 2.</_></rects>
	  <tilted>0</tilted></_>
	<_>
	  <rects>
		<_>
		  31 5 2 2 -1.</_>
		<_>
		  32 5 1 2 2.</_></rects>
	  <tilted>0</tilted></_>
	<_>
	  <rects>
		<_>
		  31 5 2 3 -1.</_>
		<_>
		  32 5 1 3 2.</_></rects>
	  <tilted>0</tilted></_>
	<_>
	  <rects>
		<_>
		  32 4 2 3 -1.</_>
		<_>
		  33 4 1 3 2.</_></rects>
	  <tilted>0</tilted></_>
	<_>
	  <rects>
		<_>
		  33 0 12 6 -1.</_>
		<_>
		  39 0 6 6 2.</_></rects>
	  <tilted>0</tilted></_>
	<_>
	  <rects>
		<_>
		  33 3 6 6 -1.</_>
		<_>
		  36 3 3 6 2.</_></rects>
	  <tilted>0</tilted></_>
	<_>
	  <rects>
		<_>
		  33 6 15 1 -1.</_>
		<_>
		  38 6 5 1 2.</_></rects>
	  <tilted>0</tilted></_>
	<_>
	  <rects>
		<_>
		  34 0 18 4 -1.</_>
		<_>
		  34 2 18 2 2.</_></rects>
	  <tilted>0</tilted></_>
	<_>
	  <rects>
		<_>
		  34 3 4 6 -1.</_>
		<_>
		  36 3 2 6 2.</_></rects>
	  <tilted>0</tilted></_>
	<_>
	  <rects>
		<_>
		  34 5 5 4 -1.</_>
		<_>
		  34 7 5 2 2.</_></rects>
	  <tilted>0</tilted></_>
	<_>
	  <rects>
		<_>
		  35 3 12 6 -1.</_>
		<_>
		  41 3 6 6 2.</_></rects>
	  <tilted>0</tilted></_>
	<_>
	  <rects>
		<_>
		  35 5 2 2 -1.</_>
		<_>
		  36 5 1 2 2.</_></rects>
	  <tilted>0</tilted></_>
	<_>
	  <rects>
		<_>
		  35 6 3 2 -1.</_>
		<_>
		  35 7 3 1 2.</_></rects>
	  <tilted>0</tilted></_>
	<_>
	  <rects>
		<_>
		  36 0 2 2 -1.</_>
		<_>
		  37 0 1 2 2.</_></rects>
	  <tilted>0</tilted></_>
	<_>
	  <rects>
		<_>
		  36 0 2 3 -1.</_>
		<_>
		  37 0 1 3 2.</_></rects>
	  <tilted>0</tilted></_>
	<_>
	  <rects>
		<_>
		  36 1 6 4 -1.</_>
		<_>
		  36 1 3 2 2.</_>
		<_>
		  39 3 3 2 2.</_></rects>
	  <tilted>0</tilted></_>
	<_>
	  <rects>
		<_>
		  36 3 6 6 -1.</_>
		<_>
		  39 3 3 6 2.</_></rects>
	  <tilted>0</tilted></_>
	<_>
	  <rects>
		<_>
		  37 1 4 4 -1.</_>
		<_>
		  37 1 2 2 2.</_>
		<_>
		  39 3 2 2 2.</_></rects>
	  <tilted>0</tilted></_>
	<_>
	  <rects>
		<_>
		  37 2 12 1 -1.</_>
		<_>
		  41 2 4 1 2.</_></rects>
	  <tilted>0</tilted></_>
	<_>
	  <rects>
		<_>
		  38 8 7 2 -1.</_>
		<_>
		  38 9 7 1 2.</_></rects>
	  <tilted>0</tilted></_>
	<_>
	  <rects>
		<_>
		  39 1 12 2 -1.</_>
		<_>
		  39 2 12 1 2.</_></rects>
	  <tilted>0</tilted></_>
	<_>
	  <rects>
		<_>
		  40 1 6 2 -1.</_>
		<_>
		  43 1 3 2 2.</_></rects>
	  <tilted>0</tilted></_>
	<_>
	  <rects>
		<_>
		  42 4 2 4 -1.</_>
		<_>
		  43 4 1 4 2.</_></rects>
	  <tilted>0</tilted></_>
	<_>
	  <rects>
		<_>
		  42 6 2 1 -1.</_>
		<_>
		  43 6 1 1 2.</_></rects>
	  <tilted>0</tilted></_>
	<_>
	  <rects>
		<_>
		  44 2 2 7 -1.</_>
		<_>
		  45 2 1 7 2.</_></rects>
	  <tilted>0</tilted></_>
	<_>
	  <rects>
		<_>
		  44 2 9 10 -1.</_>
		<_>
		  47 2 3 10 2.</_></rects>
	  <tilted>0</tilted></_>
	<_>
	  <rects>
		<_>
		  44 4 2 4 -1.</_>
		<_>
		  45 4 1 4 2.</_></rects>
	  <tilted>0</tilted></_>
	<_>
	  <rects>
		<_>
		  46 2 4 6 -1.</_>
		<_>
		  48 2 2 6 2.</_></rects>
	  <tilted>0</tilted></_>
	<_>
	  <rects>
		<_>
		  47 3 4 7 -1.</_>
		<_>
		  49 3 2 7 2.</_></rects>
	  <tilted>0</tilted></_>
	<_>
	  <rects>
		<_>
		  48 0 2 2 -1.</_>
		<_>
		  49 0 1 2 2.</_></rects>
	  <tilted>0</tilted></_>
	<_>
	  <rects>
		<_>
		  48 3 4 7 -1.</_>
		<_>
		  50 3 2 7 2.</_></rects>
	  <tilted>0</tilted></_>
	<_>
	  <rects>
		<_>
		  48 4 4 5 -1.</_>
		<_>
		  50 4 2 5 2.</_></rects>
	  <tilted>0</tilted></_>
	<_>
	  <rects>
		<_>
		  48 8 4 4 -1.</_>
		<_>
		  48 8 2 2 2.</_>
		<_>
		  50 10 2 2 2.</_></rects>
	  <tilted>0</tilted></_>
	<_>
	  <rects>
		<_>
		  50 4 2 6 -1.</_>
		<_>
		  51 4 1 6 2.</_></rects>
	  <tilted>0</tilted></_></features></cascade>
</opencv_storage>
